digraph Tree {
node [shape=box] ;
0 [label="X[1] <= 0.5\ngini = 0.469\nsamples = 712\nvalue = [444, 268]"] ;
1 [label="X[0] <= 2.5\ngini = 0.39\nsamples = 252\nvalue = [67, 185]"] ;
0 -> 1 [labeldistance=2.5, labelangle=45, headlabel="True"] ;
2 [label="X[5] <= 28.856\ngini = 0.108\nsamples = 139\nvalue = [8, 131]"] ;
1 -> 2 ;
3 [label="X[5] <= 28.231\ngini = 0.219\nsamples = 56\nvalue = [7, 49]"] ;
2 -> 3 ;
4 [label="X[2] <= 56.0\ngini = 0.194\nsamples = 55\nvalue = [6, 49]"] ;
3 -> 4 ;
5 [label="X[3] <= 0.5\ngini = 0.171\nsamples = 53\nvalue = [5, 48]"] ;
4 -> 5 ;
6 [label="X[5] <= 13.25\ngini = 0.105\nsamples = 36\nvalue = [2, 34]"] ;
5 -> 6 ;
7 [label="X[5] <= 12.825\ngini = 0.18\nsamples = 20\nvalue = [2, 18]"] ;
6 -> 7 ;
8 [label="gini = 0.0\nsamples = 9\nvalue = [0, 9]"] ;
7 -> 8 ;
9 [label="X[2] <= 37.0\ngini = 0.298\nsamples = 11\nvalue = [2, 9]"] ;
7 -> 9 ;
10 [label="X[2] <= 26.0\ngini = 0.198\nsamples = 9\nvalue = [1, 8]"] ;
9 -> 10 ;
11 [label="X[2] <= 21.0\ngini = 0.444\nsamples = 3\nvalue = [1, 2]"] ;
10 -> 11 ;
12 [label="gini = 0.0\nsamples = 1\nvalue = [0, 1]"] ;
11 -> 12 ;
13 [label="gini = 0.5\nsamples = 2\nvalue = [1, 1]"] ;
11 -> 13 ;
14 [label="gini = 0.0\nsamples = 6\nvalue = [0, 6]"] ;
10 -> 14 ;
15 [label="X[2] <= 39.0\ngini = 0.5\nsamples = 2\nvalue = [1, 1]"] ;
9 -> 15 ;
16 [label="gini = 0.0\nsamples = 1\nvalue = [1, 0]"] ;
15 -> 16 ;
17 [label="gini = 0.0\nsamples = 1\nvalue = [0, 1]"] ;
15 -> 17 ;
18 [label="gini = 0.0\nsamples = 16\nvalue = [0, 16]"] ;
6 -> 18 ;
19 [label="X[2] <= 40.0\ngini = 0.291\nsamples = 17\nvalue = [3, 14]"] ;
5 -> 19 ;
20 [label="X[2] <= 27.5\ngini = 0.231\nsamples = 15\nvalue = [2, 13]"] ;
19 -> 20 ;
21 [label="X[2] <= 25.0\ngini = 0.375\nsamples = 8\nvalue = [2, 6]"] ;
20 -> 21 ;
22 [label="gini = 0.0\nsamples = 5\nvalue = [0, 5]"] ;
21 -> 22 ;
23 [label="X[5] <= 17.429\ngini = 0.444\nsamples = 3\nvalue = [2, 1]"] ;
21 -> 23 ;
24 [label="gini = 0.0\nsamples = 1\nvalue = [0, 1]"] ;
23 -> 24 ;
25 [label="gini = 0.0\nsamples = 2\nvalue = [2, 0]"] ;
23 -> 25 ;
26 [label="gini = 0.0\nsamples = 7\nvalue = [0, 7]"] ;
20 -> 26 ;
27 [label="X[5] <= 26.125\ngini = 0.5\nsamples = 2\nvalue = [1, 1]"] ;
19 -> 27 ;
28 [label="gini = 0.0\nsamples = 1\nvalue = [1, 0]"] ;
27 -> 28 ;
29 [label="gini = 0.0\nsamples = 1\nvalue = [0, 1]"] ;
27 -> 29 ;
30 [label="X[0] <= 1.5\ngini = 0.5\nsamples = 2\nvalue = [1, 1]"] ;
4 -> 30 ;
31 [label="gini = 0.0\nsamples = 1\nvalue = [0, 1]"] ;
30 -> 31 ;
32 [label="gini = 0.0\nsamples = 1\nvalue = [1, 0]"] ;
30 -> 32 ;
33 [label="gini = 0.0\nsamples = 1\nvalue = [1, 0]"] ;
3 -> 33 ;
34 [label="X[4] <= 1.5\ngini = 0.024\nsamples = 83\nvalue = [1, 82]"] ;
2 -> 34 ;
35 [label="gini = 0.0\nsamples = 71\nvalue = [0, 71]"] ;
34 -> 35 ;
36 [label="X[2] <= 24.5\ngini = 0.153\nsamples = 12\nvalue = [1, 11]"] ;
34 -> 36 ;
37 [label="gini = 0.0\nsamples = 8\nvalue = [0, 8]"] ;
36 -> 37 ;
38 [label="X[2] <= 28.0\ngini = 0.375\nsamples = 4\nvalue = [1, 3]"] ;
36 -> 38 ;
39 [label="gini = 0.0\nsamples = 1\nvalue = [1, 0]"] ;
38 -> 39 ;
40 [label="gini = 0.0\nsamples = 3\nvalue = [0, 3]"] ;
38 -> 40 ;
41 [label="X[5] <= 23.35\ngini = 0.499\nsamples = 113\nvalue = [59, 54]"] ;
1 -> 41 ;
42 [label="X[2] <= 29.85\ngini = 0.486\nsamples = 89\nvalue = [37, 52]"] ;
41 -> 42 ;
43 [label="X[5] <= 7.888\ngini = 0.46\nsamples = 78\nvalue = [28, 50]"] ;
42 -> 43 ;
44 [label="X[5] <= 6.987\ngini = 0.346\nsamples = 36\nvalue = [8, 28]"] ;
43 -> 44 ;
45 [label="gini = 0.0\nsamples = 1\nvalue = [1, 0]"] ;
44 -> 45 ;
46 [label="X[4] <= 1.0\ngini = 0.32\nsamples = 35\nvalue = [7, 28]"] ;
44 -> 46 ;
47 [label="X[5] <= 7.59\ngini = 0.291\nsamples = 34\nvalue = [6, 28]"] ;
46 -> 47 ;
48 [label="gini = 0.0\nsamples = 7\nvalue = [0, 7]"] ;
47 -> 48 ;
49 [label="X[2] <= 18.5\ngini = 0.346\nsamples = 27\nvalue = [6, 21]"] ;
47 -> 49 ;
50 [label="X[5] <= 7.763\ngini = 0.444\nsamples = 3\nvalue = [2, 1]"] ;
49 -> 50 ;
51 [label="gini = 0.0\nsamples = 1\nvalue = [0, 1]"] ;
50 -> 51 ;
52 [label="gini = 0.0\nsamples = 2\nvalue = [2, 0]"] ;
50 -> 52 ;
53 [label="X[5] <= 7.64\ngini = 0.278\nsamples = 24\nvalue = [4, 20]"] ;
49 -> 53 ;
54 [label="gini = 0.0\nsamples = 1\nvalue = [1, 0]"] ;
53 -> 54 ;
55 [label="X[5] <= 7.781\ngini = 0.227\nsamples = 23\nvalue = [3, 20]"] ;
53 -> 55 ;
56 [label="X[2] <= 21.5\ngini = 0.32\nsamples = 15\nvalue = [3, 12]"] ;
55 -> 56 ;
57 [label="X[5] <= 7.7\ngini = 0.5\nsamples = 2\nvalue = [1, 1]"] ;
56 -> 57 ;
58 [label="gini = 0.0\nsamples = 1\nvalue = [0, 1]"] ;
57 -> 58 ;
59 [label="gini = 0.0\nsamples = 1\nvalue = [1, 0]"] ;
57 -> 59 ;
60 [label="X[5] <= 7.763\ngini = 0.26\nsamples = 13\nvalue = [2, 11]"] ;
56 -> 60 ;
61 [label="X[2] <= 25.85\ngini = 0.165\nsamples = 11\nvalue = [1, 10]"] ;
60 -> 61 ;
62 [label="gini = 0.0\nsamples = 2\nvalue = [0, 2]"] ;
61 -> 62 ;
63 [label="X[5] <= 7.742\ngini = 0.198\nsamples = 9\nvalue = [1, 8]"] ;
61 -> 63 ;
64 [label="gini = 0.0\nsamples = 1\nvalue = [0, 1]"] ;
63 -> 64 ;
65 [label="gini = 0.219\nsamples = 8\nvalue = [1, 7]"] ;
63 -> 65 ;
66 [label="X[2] <= 23.5\ngini = 0.5\nsamples = 2\nvalue = [1, 1]"] ;
60 -> 66 ;
67 [label="gini = 0.0\nsamples = 1\nvalue = [0, 1]"] ;
66 -> 67 ;
68 [label="gini = 0.0\nsamples = 1\nvalue = [1, 0]"] ;
66 -> 68 ;
69 [label="gini = 0.0\nsamples = 8\nvalue = [0, 8]"] ;
55 -> 69 ;
70 [label="gini = 0.0\nsamples = 1\nvalue = [1, 0]"] ;
46 -> 70 ;
71 [label="X[5] <= 15.373\ngini = 0.499\nsamples = 42\nvalue = [20, 22]"] ;
43 -> 71 ;
72 [label="X[2] <= 27.5\ngini = 0.423\nsamples = 23\nvalue = [16, 7]"] ;
71 -> 72 ;
73 [label="X[2] <= 26.0\ngini = 0.492\nsamples = 16\nvalue = [9, 7]"] ;
72 -> 73 ;
74 [label="X[2] <= 19.0\ngini = 0.426\nsamples = 13\nvalue = [9, 4]"] ;
73 -> 74 ;
75 [label="X[2] <= 14.75\ngini = 0.49\nsamples = 7\nvalue = [3, 4]"] ;
74 -> 75 ;
76 [label="X[2] <= 11.5\ngini = 0.375\nsamples = 4\nvalue = [3, 1]"] ;
75 -> 76 ;
77 [label="gini = 0.0\nsamples = 2\nvalue = [2, 0]"] ;
76 -> 77 ;
78 [label="X[5] <= 12.848\ngini = 0.5\nsamples = 2\nvalue = [1, 1]"] ;
76 -> 78 ;
79 [label="gini = 0.0\nsamples = 1\nvalue = [0, 1]"] ;
78 -> 79 ;
80 [label="gini = 0.0\nsamples = 1\nvalue = [1, 0]"] ;
78 -> 80 ;
81 [label="gini = 0.0\nsamples = 3\nvalue = [0, 3]"] ;
75 -> 81 ;
82 [label="gini = 0.0\nsamples = 6\nvalue = [6, 0]"] ;
74 -> 82 ;
83 [label="gini = 0.0\nsamples = 3\nvalue = [0, 3]"] ;
73 -> 83 ;
84 [label="gini = 0.0\nsamples = 7\nvalue = [7, 0]"] ;
72 -> 84 ;
85 [label="X[4] <= 3.5\ngini = 0.332\nsamples = 19\nvalue = [4, 15]"] ;
71 -> 85 ;
86 [label="X[4] <= 0.5\ngini = 0.278\nsamples = 18\nvalue = [3, 15]"] ;
85 -> 86 ;
87 [label="X[2] <= 27.85\ngini = 0.42\nsamples = 10\nvalue = [3, 7]"] ;
86 -> 87 ;
88 [label="X[5] <= 15.975\ngini = 0.375\nsamples = 4\nvalue = [3, 1]"] ;
87 -> 88 ;
89 [label="gini = 0.0\nsamples = 1\nvalue = [0, 1]"] ;
88 -> 89 ;
90 [label="gini = 0.0\nsamples = 3\nvalue = [3, 0]"] ;
88 -> 90 ;
91 [label="gini = 0.0\nsamples = 6\nvalue = [0, 6]"] ;
87 -> 91 ;
92 [label="gini = 0.0\nsamples = 8\nvalue = [0, 8]"] ;
86 -> 92 ;
93 [label="gini = 0.0\nsamples = 1\nvalue = [1, 0]"] ;
85 -> 93 ;
94 [label="X[3] <= 2.0\ngini = 0.298\nsamples = 11\nvalue = [9, 2]"] ;
42 -> 94 ;
95 [label="X[5] <= 20.231\ngini = 0.18\nsamples = 10\nvalue = [9, 1]"] ;
94 -> 95 ;
96 [label="gini = 0.0\nsamples = 9\nvalue = [9, 0]"] ;
95 -> 96 ;
97 [label="gini = 0.0\nsamples = 1\nvalue = [0, 1]"] ;
95 -> 97 ;
98 [label="gini = 0.0\nsamples = 1\nvalue = [0, 1]"] ;
94 -> 98 ;
99 [label="X[4] <= 0.5\ngini = 0.153\nsamples = 24\nvalue = [22, 2]"] ;
41 -> 99 ;
100 [label="gini = 0.0\nsamples = 1\nvalue = [0, 1]"] ;
99 -> 100 ;
101 [label="X[2] <= 5.5\ngini = 0.083\nsamples = 23\nvalue = [22, 1]"] ;
99 -> 101 ;
102 [label="X[5] <= 31.331\ngini = 0.444\nsamples = 3\nvalue = [2, 1]"] ;
101 -> 102 ;
103 [label="gini = 0.0\nsamples = 2\nvalue = [2, 0]"] ;
102 -> 103 ;
104 [label="gini = 0.0\nsamples = 1\nvalue = [0, 1]"] ;
102 -> 104 ;
105 [label="gini = 0.0\nsamples = 20\nvalue = [20, 0]"] ;
101 -> 105 ;
106 [label="X[2] <= 6.5\ngini = 0.296\nsamples = 460\nvalue = [377, 83]"] ;
0 -> 106 [labeldistance=2.5, labelangle=-45, headlabel="False"] ;
107 [label="X[3] <= 2.5\ngini = 0.43\nsamples = 16\nvalue = [5, 11]"] ;
106 -> 107 ;
108 [label="gini = 0.0\nsamples = 11\nvalue = [0, 11]"] ;
107 -> 108 ;
109 [label="gini = 0.0\nsamples = 5\nvalue = [5, 0]"] ;
107 -> 109 ;
110 [label="X[0] <= 1.5\ngini = 0.272\nsamples = 444\nvalue = [372, 72]"] ;
106 -> 110 ;
111 [label="X[2] <= 51.5\ngini = 0.44\nsamples = 101\nvalue = [68, 33]"] ;
110 -> 111 ;
112 [label="X[5] <= 26.144\ngini = 0.475\nsamples = 80\nvalue = [49, 31]"] ;
111 -> 112 ;
113 [label="gini = 0.0\nsamples = 8\nvalue = [8, 0]"] ;
112 -> 113 ;
114 [label="X[5] <= 27.135\ngini = 0.49\nsamples = 72\nvalue = [41, 31]"] ;
112 -> 114 ;
115 [label="X[5] <= 26.469\ngini = 0.32\nsamples = 10\nvalue = [2, 8]"] ;
114 -> 115 ;
116 [label="gini = 0.0\nsamples = 4\nvalue = [0, 4]"] ;
115 -> 116 ;
117 [label="X[2] <= 46.5\ngini = 0.444\nsamples = 6\nvalue = [2, 4]"] ;
115 -> 117 ;
118 [label="X[2] <= 39.5\ngini = 0.5\nsamples = 4\nvalue = [2, 2]"] ;
117 -> 118 ;
119 [label="X[2] <= 31.85\ngini = 0.444\nsamples = 3\nvalue = [1, 2]"] ;
118 -> 119 ;
120 [label="gini = 0.5\nsamples = 2\nvalue = [1, 1]"] ;
119 -> 120 ;
121 [label="gini = 0.0\nsamples = 1\nvalue = [0, 1]"] ;
119 -> 121 ;
122 [label="gini = 0.0\nsamples = 1\nvalue = [1, 0]"] ;
118 -> 122 ;
123 [label="gini = 0.0\nsamples = 2\nvalue = [0, 2]"] ;
117 -> 123 ;
124 [label="X[2] <= 47.5\ngini = 0.467\nsamples = 62\nvalue = [39, 23]"] ;
114 -> 124 ;
125 [label="X[2] <= 43.0\ngini = 0.444\nsamples = 54\nvalue = [36, 18]"] ;
124 -> 125 ;
126 [label="X[5] <= 28.725\ngini = 0.473\nsamples = 47\nvalue = [29, 18]"] ;
125 -> 126 ;
127 [label="gini = 0.0\nsamples = 4\nvalue = [4, 0]"] ;
126 -> 127 ;
128 [label="X[5] <= 30.598\ngini = 0.487\nsamples = 43\nvalue = [25, 18]"] ;
126 -> 128 ;
129 [label="X[2] <= 34.5\ngini = 0.408\nsamples = 7\nvalue = [2, 5]"] ;
128 -> 129 ;
130 [label="X[2] <= 29.35\ngini = 0.278\nsamples = 6\nvalue = [1, 5]"] ;
129 -> 130 ;
131 [label="X[2] <= 28.0\ngini = 0.5\nsamples = 2\nvalue = [1, 1]"] ;
130 -> 131 ;
132 [label="gini = 0.0\nsamples = 1\nvalue = [0, 1]"] ;
131 -> 132 ;
133 [label="gini = 0.0\nsamples = 1\nvalue = [1, 0]"] ;
131 -> 133 ;
134 [label="gini = 0.0\nsamples = 4\nvalue = [0, 4]"] ;
130 -> 134 ;
135 [label="gini = 0.0\nsamples = 1\nvalue = [1, 0]"] ;
129 -> 135 ;
136 [label="X[5] <= 52.277\ngini = 0.461\nsamples = 36\nvalue = [23, 13]"] ;
128 -> 136 ;
137 [label="X[5] <= 37.55\ngini = 0.337\nsamples = 14\nvalue = [11, 3]"] ;
136 -> 137 ;
138 [label="X[5] <= 35.25\ngini = 0.5\nsamples = 6\nvalue = [3, 3]"] ;
137 -> 138 ;
139 [label="X[2] <= 34.85\ngini = 0.375\nsamples = 4\nvalue = [3, 1]"] ;
138 -> 139 ;
140 [label="gini = 0.0\nsamples = 3\nvalue = [3, 0]"] ;
139 -> 140 ;
141 [label="gini = 0.0\nsamples = 1\nvalue = [0, 1]"] ;
139 -> 141 ;
142 [label="gini = 0.0\nsamples = 2\nvalue = [0, 2]"] ;
138 -> 142 ;
143 [label="gini = 0.0\nsamples = 8\nvalue = [8, 0]"] ;
137 -> 143 ;
144 [label="X[5] <= 77.008\ngini = 0.496\nsamples = 22\nvalue = [12, 10]"] ;
136 -> 144 ;
145 [label="X[2] <= 21.0\ngini = 0.42\nsamples = 10\nvalue = [3, 7]"] ;
144 -> 145 ;
146 [label="gini = 0.0\nsamples = 1\nvalue = [1, 0]"] ;
145 -> 146 ;
147 [label="X[2] <= 28.0\ngini = 0.346\nsamples = 9\nvalue = [2, 7]"] ;
145 -> 147 ;
148 [label="gini = 0.0\nsamples = 4\nvalue = [0, 4]"] ;
147 -> 148 ;
149 [label="X[5] <= 52.827\ngini = 0.48\nsamples = 5\nvalue = [2, 3]"] ;
147 -> 149 ;
150 [label="gini = 0.0\nsamples = 2\nvalue = [0, 2]"] ;
149 -> 150 ;
151 [label="X[5] <= 55.05\ngini = 0.444\nsamples = 3\nvalue = [2, 1]"] ;
149 -> 151 ;
152 [label="gini = 0.0\nsamples = 1\nvalue = [1, 0]"] ;
151 -> 152 ;
153 [label="X[5] <= 61.8\ngini = 0.5\nsamples = 2\nvalue = [1, 1]"] ;
151 -> 153 ;
154 [label="gini = 0.0\nsamples = 1\nvalue = [0, 1]"] ;
153 -> 154 ;
155 [label="gini = 0.0\nsamples = 1\nvalue = [1, 0]"] ;
153 -> 155 ;
156 [label="X[2] <= 17.5\ngini = 0.375\nsamples = 12\nvalue = [9, 3]"] ;
144 -> 156 ;
157 [label="gini = 0.0\nsamples = 1\nvalue = [0, 1]"] ;
156 -> 157 ;
158 [label="X[5] <= 387.665\ngini = 0.298\nsamples = 11\nvalue = [9, 2]"] ;
156 -> 158 ;
159 [label="X[5] <= 99.99\ngini = 0.18\nsamples = 10\nvalue = [9, 1]"] ;
158 -> 159 ;
160 [label="X[5] <= 86.625\ngini = 0.375\nsamples = 4\nvalue = [3, 1]"] ;
159 -> 160 ;
161 [label="gini = 0.0\nsamples = 3\nvalue = [3, 0]"] ;
160 -> 161 ;
162 [label="gini = 0.0\nsamples = 1\nvalue = [0, 1]"] ;
160 -> 162 ;
163 [label="gini = 0.0\nsamples = 6\nvalue = [6, 0]"] ;
159 -> 163 ;
164 [label="gini = 0.0\nsamples = 1\nvalue = [0, 1]"] ;
158 -> 164 ;
165 [label="gini = 0.0\nsamples = 7\nvalue = [7, 0]"] ;
125 -> 165 ;
166 [label="X[4] <= 0.5\ngini = 0.469\nsamples = 8\nvalue = [3, 5]"] ;
124 -> 166 ;
167 [label="X[2] <= 49.5\ngini = 0.278\nsamples = 6\nvalue = [1, 5]"] ;
166 -> 167 ;
168 [label="gini = 0.0\nsamples = 4\nvalue = [0, 4]"] ;
167 -> 168 ;
169 [label="X[3] <= 1.5\ngini = 0.5\nsamples = 2\nvalue = [1, 1]"] ;
167 -> 169 ;
170 [label="gini = 0.0\nsamples = 1\nvalue = [1, 0]"] ;
169 -> 170 ;
171 [label="gini = 0.0\nsamples = 1\nvalue = [0, 1]"] ;
169 -> 171 ;
172 [label="gini = 0.0\nsamples = 2\nvalue = [2, 0]"] ;
166 -> 172 ;
173 [label="X[5] <= 35.077\ngini = 0.172\nsamples = 21\nvalue = [19, 2]"] ;
111 -> 173 ;
174 [label="gini = 0.0\nsamples = 12\nvalue = [12, 0]"] ;
173 -> 174 ;
175 [label="X[5] <= 42.502\ngini = 0.346\nsamples = 9\nvalue = [7, 2]"] ;
173 -> 175 ;
176 [label="gini = 0.0\nsamples = 1\nvalue = [0, 1]"] ;
175 -> 176 ;
177 [label="X[5] <= 78.244\ngini = 0.219\nsamples = 8\nvalue = [7, 1]"] ;
175 -> 177 ;
178 [label="gini = 0.0\nsamples = 4\nvalue = [4, 0]"] ;
177 -> 178 ;
179 [label="X[5] <= 79.425\ngini = 0.375\nsamples = 4\nvalue = [3, 1]"] ;
177 -> 179 ;
180 [label="gini = 0.0\nsamples = 1\nvalue = [0, 1]"] ;
179 -> 180 ;
181 [label="gini = 0.0\nsamples = 3\nvalue = [3, 0]"] ;
179 -> 181 ;
182 [label="X[5] <= 51.698\ngini = 0.202\nsamples = 343\nvalue = [304, 39]"] ;
110 -> 182 ;
183 [label="X[2] <= 13.0\ngini = 0.188\nsamples = 334\nvalue = [299, 35]"] ;
182 -> 183 ;
184 [label="X[3] <= 2.0\ngini = 0.444\nsamples = 9\nvalue = [6, 3]"] ;
183 -> 184 ;
185 [label="gini = 0.0\nsamples = 3\nvalue = [0, 3]"] ;
184 -> 185 ;
186 [label="gini = 0.0\nsamples = 6\nvalue = [6, 0]"] ;
184 -> 186 ;
187 [label="X[5] <= 19.377\ngini = 0.178\nsamples = 325\nvalue = [293, 32]"] ;
183 -> 187 ;
188 [label="X[5] <= 18.394\ngini = 0.196\nsamples = 281\nvalue = [250, 31]"] ;
187 -> 188 ;
189 [label="X[2] <= 44.5\ngini = 0.191\nsamples = 280\nvalue = [250, 30]"] ;
188 -> 189 ;
190 [label="X[5] <= 7.91\ngini = 0.203\nsamples = 262\nvalue = [232, 30]"] ;
189 -> 190 ;
191 [label="X[2] <= 29.35\ngini = 0.162\nsamples = 135\nvalue = [123, 12]"] ;
190 -> 191 ;
192 [label="X[5] <= 7.01\ngini = 0.219\nsamples = 64\nvalue = [56, 8]"] ;
191 -> 192 ;
193 [label="X[2] <= 22.5\ngini = 0.48\nsamples = 5\nvalue = [3, 2]"] ;
192 -> 193 ;
194 [label="gini = 0.0\nsamples = 3\nvalue = [3, 0]"] ;
193 -> 194 ;
195 [label="gini = 0.0\nsamples = 2\nvalue = [0, 2]"] ;
193 -> 195 ;
196 [label="X[2] <= 19.5\ngini = 0.183\nsamples = 59\nvalue = [53, 6]"] ;
192 -> 196 ;
197 [label="gini = 0.0\nsamples = 14\nvalue = [14, 0]"] ;
196 -> 197 ;
198 [label="X[2] <= 20.25\ngini = 0.231\nsamples = 45\nvalue = [39, 6]"] ;
196 -> 198 ;
199 [label="X[5] <= 7.14\ngini = 0.444\nsamples = 3\nvalue = [2, 1]"] ;
198 -> 199 ;
200 [label="gini = 0.0\nsamples = 1\nvalue = [1, 0]"] ;
199 -> 200 ;
201 [label="X[5] <= 7.542\ngini = 0.5\nsamples = 2\nvalue = [1, 1]"] ;
199 -> 201 ;
202 [label="gini = 0.0\nsamples = 1\nvalue = [0, 1]"] ;
201 -> 202 ;
203 [label="gini = 0.0\nsamples = 1\nvalue = [1, 0]"] ;
201 -> 203 ;
204 [label="X[5] <= 7.713\ngini = 0.21\nsamples = 42\nvalue = [37, 5]"] ;
198 -> 204 ;
205 [label="X[5] <= 7.227\ngini = 0.1\nsamples = 19\nvalue = [18, 1]"] ;
204 -> 205 ;
206 [label="X[5] <= 7.175\ngini = 0.245\nsamples = 7\nvalue = [6, 1]"] ;
205 -> 206 ;
207 [label="gini = 0.0\nsamples = 5\nvalue = [5, 0]"] ;
206 -> 207 ;
208 [label="X[2] <= 23.5\ngini = 0.5\nsamples = 2\nvalue = [1, 1]"] ;
206 -> 208 ;
209 [label="gini = 0.0\nsamples = 1\nvalue = [0, 1]"] ;
208 -> 209 ;
210 [label="gini = 0.0\nsamples = 1\nvalue = [1, 0]"] ;
208 -> 210 ;
211 [label="gini = 0.0\nsamples = 12\nvalue = [12, 0]"] ;
205 -> 211 ;
212 [label="X[5] <= 7.798\ngini = 0.287\nsamples = 23\nvalue = [19, 4]"] ;
204 -> 212 ;
213 [label="X[2] <= 27.5\ngini = 0.444\nsamples = 9\nvalue = [6, 3]"] ;
212 -> 213 ;
214 [label="X[2] <= 26.5\ngini = 0.49\nsamples = 7\nvalue = [4, 3]"] ;
213 -> 214 ;
215 [label="X[2] <= 25.5\ngini = 0.444\nsamples = 6\nvalue = [4, 2]"] ;
214 -> 215 ;
216 [label="X[2] <= 21.5\ngini = 0.48\nsamples = 5\nvalue = [3, 2]"] ;
215 -> 216 ;
217 [label="X[5] <= 7.785\ngini = 0.5\nsamples = 2\nvalue = [1, 1]"] ;
216 -> 217 ;
218 [label="gini = 0.0\nsamples = 1\nvalue = [1, 0]"] ;
217 -> 218 ;
219 [label="gini = 0.0\nsamples = 1\nvalue = [0, 1]"] ;
217 -> 219 ;
220 [label="X[5] <= 7.785\ngini = 0.444\nsamples = 3\nvalue = [2, 1]"] ;
216 -> 220 ;
221 [label="gini = 0.5\nsamples = 2\nvalue = [1, 1]"] ;
220 -> 221 ;
222 [label="gini = 0.0\nsamples = 1\nvalue = [1, 0]"] ;
220 -> 222 ;
223 [label="gini = 0.0\nsamples = 1\nvalue = [1, 0]"] ;
215 -> 223 ;
224 [label="gini = 0.0\nsamples = 1\nvalue = [0, 1]"] ;
214 -> 224 ;
225 [label="gini = 0.0\nsamples = 2\nvalue = [2, 0]"] ;
213 -> 225 ;
226 [label="X[2] <= 28.5\ngini = 0.133\nsamples = 14\nvalue = [13, 1]"] ;
212 -> 226 ;
227 [label="gini = 0.0\nsamples = 12\nvalue = [12, 0]"] ;
226 -> 227 ;
228 [label="X[5] <= 7.885\ngini = 0.5\nsamples = 2\nvalue = [1, 1]"] ;
226 -> 228 ;
229 [label="gini = 0.0\nsamples = 1\nvalue = [1, 0]"] ;
228 -> 229 ;
230 [label="gini = 0.0\nsamples = 1\nvalue = [0, 1]"] ;
228 -> 230 ;
231 [label="X[5] <= 7.227\ngini = 0.106\nsamples = 71\nvalue = [67, 4]"] ;
191 -> 231 ;
232 [label="gini = 0.0\nsamples = 19\nvalue = [19, 0]"] ;
231 -> 232 ;
233 [label="X[5] <= 7.875\ngini = 0.142\nsamples = 52\nvalue = [48, 4]"] ;
231 -> 233 ;
234 [label="X[5] <= 7.842\ngini = 0.208\nsamples = 34\nvalue = [30, 4]"] ;
233 -> 234 ;
235 [label="X[5] <= 7.763\ngini = 0.165\nsamples = 33\nvalue = [30, 3]"] ;
234 -> 235 ;
236 [label="X[5] <= 7.24\ngini = 0.133\nsamples = 28\nvalue = [26, 2]"] ;
235 -> 236 ;
237 [label="gini = 0.278\nsamples = 6\nvalue = [5, 1]"] ;
236 -> 237 ;
238 [label="X[5] <= 7.744\ngini = 0.087\nsamples = 22\nvalue = [21, 1]"] ;
236 -> 238 ;
239 [label="gini = 0.0\nsamples = 9\nvalue = [9, 0]"] ;
238 -> 239 ;
240 [label="X[2] <= 30.35\ngini = 0.142\nsamples = 13\nvalue = [12, 1]"] ;
238 -> 240 ;
241 [label="X[3] <= 0.5\ngini = 0.18\nsamples = 10\nvalue = [9, 1]"] ;
240 -> 241 ;
242 [label="gini = 0.198\nsamples = 9\nvalue = [8, 1]"] ;
241 -> 242 ;
243 [label="gini = 0.0\nsamples = 1\nvalue = [1, 0]"] ;
241 -> 243 ;
244 [label="gini = 0.0\nsamples = 3\nvalue = [3, 0]"] ;
240 -> 244 ;
245 [label="X[2] <= 30.35\ngini = 0.32\nsamples = 5\nvalue = [4, 1]"] ;
235 -> 245 ;
246 [label="X[5] <= 7.802\ngini = 0.444\nsamples = 3\nvalue = [2, 1]"] ;
245 -> 246 ;
247 [label="gini = 0.5\nsamples = 2\nvalue = [1, 1]"] ;
246 -> 247 ;
248 [label="gini = 0.0\nsamples = 1\nvalue = [1, 0]"] ;
246 -> 248 ;
249 [label="gini = 0.0\nsamples = 2\nvalue = [2, 0]"] ;
245 -> 249 ;
250 [label="gini = 0.0\nsamples = 1\nvalue = [0, 1]"] ;
234 -> 250 ;
251 [label="gini = 0.0\nsamples = 18\nvalue = [18, 0]"] ;
233 -> 251 ;
252 [label="X[5] <= 7.988\ngini = 0.243\nsamples = 127\nvalue = [109, 18]"] ;
190 -> 252 ;
253 [label="X[2] <= 41.5\ngini = 0.463\nsamples = 11\nvalue = [7, 4]"] ;
252 -> 253 ;
254 [label="X[2] <= 30.0\ngini = 0.42\nsamples = 10\nvalue = [7, 3]"] ;
253 -> 254 ;
255 [label="X[3] <= 0.5\ngini = 0.32\nsamples = 5\nvalue = [4, 1]"] ;
254 -> 255 ;
256 [label="gini = 0.0\nsamples = 3\nvalue = [3, 0]"] ;
255 -> 256 ;
257 [label="X[2] <= 24.0\ngini = 0.5\nsamples = 2\nvalue = [1, 1]"] ;
255 -> 257 ;
258 [label="gini = 0.0\nsamples = 1\nvalue = [0, 1]"] ;
257 -> 258 ;
259 [label="gini = 0.0\nsamples = 1\nvalue = [1, 0]"] ;
257 -> 259 ;
260 [label="X[2] <= 35.5\ngini = 0.48\nsamples = 5\nvalue = [3, 2]"] ;
254 -> 260 ;
261 [label="gini = 0.444\nsamples = 3\nvalue = [2, 1]"] ;
260 -> 261 ;
262 [label="gini = 0.5\nsamples = 2\nvalue = [1, 1]"] ;
260 -> 262 ;
263 [label="gini = 0.0\nsamples = 1\nvalue = [0, 1]"] ;
253 -> 263 ;
264 [label="X[2] <= 20.5\ngini = 0.212\nsamples = 116\nvalue = [102, 14]"] ;
252 -> 264 ;
265 [label="X[5] <= 8.104\ngini = 0.363\nsamples = 21\nvalue = [16, 5]"] ;
264 -> 265 ;
266 [label="X[2] <= 18.5\ngini = 0.48\nsamples = 5\nvalue = [2, 3]"] ;
265 -> 266 ;
267 [label="gini = 0.0\nsamples = 2\nvalue = [0, 2]"] ;
266 -> 267 ;
268 [label="X[2] <= 19.5\ngini = 0.444\nsamples = 3\nvalue = [2, 1]"] ;
266 -> 268 ;
269 [label="gini = 0.5\nsamples = 2\nvalue = [1, 1]"] ;
268 -> 269 ;
270 [label="gini = 0.0\nsamples = 1\nvalue = [1, 0]"] ;
268 -> 270 ;
271 [label="X[4] <= 0.5\ngini = 0.219\nsamples = 16\nvalue = [14, 2]"] ;
265 -> 271 ;
272 [label="X[0] <= 2.5\ngini = 0.124\nsamples = 15\nvalue = [14, 1]"] ;
271 -> 272 ;
273 [label="X[2] <= 18.5\ngini = 0.278\nsamples = 6\nvalue = [5, 1]"] ;
272 -> 273 ;
274 [label="gini = 0.0\nsamples = 3\nvalue = [3, 0]"] ;
273 -> 274 ;
275 [label="X[5] <= 11.75\ngini = 0.444\nsamples = 3\nvalue = [2, 1]"] ;
273 -> 275 ;
276 [label="gini = 0.5\nsamples = 2\nvalue = [1, 1]"] ;
275 -> 276 ;
277 [label="gini = 0.0\nsamples = 1\nvalue = [1, 0]"] ;
275 -> 277 ;
278 [label="gini = 0.0\nsamples = 9\nvalue = [9, 0]"] ;
272 -> 278 ;
279 [label="gini = 0.0\nsamples = 1\nvalue = [0, 1]"] ;
271 -> 279 ;
280 [label="X[2] <= 26.5\ngini = 0.172\nsamples = 95\nvalue = [86, 9]"] ;
264 -> 280 ;
281 [label="gini = 0.0\nsamples = 24\nvalue = [24, 0]"] ;
280 -> 281 ;
282 [label="X[5] <= 8.081\ngini = 0.221\nsamples = 71\nvalue = [62, 9]"] ;
280 -> 282 ;
283 [label="X[2] <= 31.25\ngini = 0.087\nsamples = 22\nvalue = [21, 1]"] ;
282 -> 283 ;
284 [label="gini = 0.0\nsamples = 15\nvalue = [15, 0]"] ;
283 -> 284 ;
285 [label="X[2] <= 33.0\ngini = 0.245\nsamples = 7\nvalue = [6, 1]"] ;
283 -> 285 ;
286 [label="gini = 0.0\nsamples = 1\nvalue = [0, 1]"] ;
285 -> 286 ;
287 [label="gini = 0.0\nsamples = 6\nvalue = [6, 0]"] ;
285 -> 287 ;
288 [label="X[5] <= 8.258\ngini = 0.273\nsamples = 49\nvalue = [41, 8]"] ;
282 -> 288 ;
289 [label="gini = 0.0\nsamples = 1\nvalue = [0, 1]"] ;
288 -> 289 ;
290 [label="X[2] <= 30.5\ngini = 0.249\nsamples = 48\nvalue = [41, 7]"] ;
288 -> 290 ;
291 [label="X[4] <= 0.5\ngini = 0.32\nsamples = 25\nvalue = [20, 5]"] ;
290 -> 291 ;
292 [label="X[5] <= 10.0\ngini = 0.278\nsamples = 24\nvalue = [20, 4]"] ;
291 -> 292 ;
293 [label="X[2] <= 27.5\ngini = 0.444\nsamples = 9\nvalue = [6, 3]"] ;
292 -> 293 ;
294 [label="gini = 0.0\nsamples = 1\nvalue = [0, 1]"] ;
293 -> 294 ;
295 [label="X[2] <= 29.85\ngini = 0.375\nsamples = 8\nvalue = [6, 2]"] ;
293 -> 295 ;
296 [label="X[5] <= 9.492\ngini = 0.245\nsamples = 7\nvalue = [6, 1]"] ;
295 -> 296 ;
297 [label="gini = 0.0\nsamples = 4\nvalue = [4, 0]"] ;
296 -> 297 ;
298 [label="X[2] <= 28.5\ngini = 0.444\nsamples = 3\nvalue = [2, 1]"] ;
296 -> 298 ;
299 [label="gini = 0.0\nsamples = 1\nvalue = [1, 0]"] ;
298 -> 299 ;
300 [label="X[2] <= 29.35\ngini = 0.5\nsamples = 2\nvalue = [1, 1]"] ;
298 -> 300 ;
301 [label="gini = 0.0\nsamples = 1\nvalue = [0, 1]"] ;
300 -> 301 ;
302 [label="gini = 0.0\nsamples = 1\nvalue = [1, 0]"] ;
300 -> 302 ;
303 [label="gini = 0.0\nsamples = 1\nvalue = [0, 1]"] ;
295 -> 303 ;
304 [label="X[5] <= 14.158\ngini = 0.124\nsamples = 15\nvalue = [14, 1]"] ;
292 -> 304 ;
305 [label="X[5] <= 13.681\ngini = 0.245\nsamples = 7\nvalue = [6, 1]"] ;
304 -> 305 ;
306 [label="gini = 0.0\nsamples = 6\nvalue = [6, 0]"] ;
305 -> 306 ;
307 [label="gini = 0.0\nsamples = 1\nvalue = [0, 1]"] ;
305 -> 307 ;
308 [label="gini = 0.0\nsamples = 8\nvalue = [8, 0]"] ;
304 -> 308 ;
309 [label="gini = 0.0\nsamples = 1\nvalue = [0, 1]"] ;
291 -> 309 ;
310 [label="X[5] <= 12.938\ngini = 0.159\nsamples = 23\nvalue = [21, 2]"] ;
290 -> 310 ;
311 [label="gini = 0.0\nsamples = 12\nvalue = [12, 0]"] ;
310 -> 311 ;
312 [label="X[5] <= 13.75\ngini = 0.298\nsamples = 11\nvalue = [9, 2]"] ;
310 -> 312 ;
313 [label="X[2] <= 40.5\ngini = 0.375\nsamples = 8\nvalue = [6, 2]"] ;
312 -> 313 ;
314 [label="X[2] <= 35.0\ngini = 0.278\nsamples = 6\nvalue = [5, 1]"] ;
313 -> 314 ;
315 [label="gini = 0.444\nsamples = 3\nvalue = [2, 1]"] ;
314 -> 315 ;
316 [label="gini = 0.0\nsamples = 3\nvalue = [3, 0]"] ;
314 -> 316 ;
317 [label="gini = 0.5\nsamples = 2\nvalue = [1, 1]"] ;
313 -> 317 ;
318 [label="gini = 0.0\nsamples = 3\nvalue = [3, 0]"] ;
312 -> 318 ;
319 [label="gini = 0.0\nsamples = 18\nvalue = [18, 0]"] ;
189 -> 319 ;
320 [label="gini = 0.0\nsamples = 1\nvalue = [0, 1]"] ;
188 -> 320 ;
321 [label="X[2] <= 31.5\ngini = 0.044\nsamples = 44\nvalue = [43, 1]"] ;
187 -> 321 ;
322 [label="gini = 0.0\nsamples = 24\nvalue = [24, 0]"] ;
321 -> 322 ;
323 [label="X[2] <= 32.25\ngini = 0.095\nsamples = 20\nvalue = [19, 1]"] ;
321 -> 323 ;
324 [label="gini = 0.0\nsamples = 1\nvalue = [0, 1]"] ;
323 -> 324 ;
325 [label="gini = 0.0\nsamples = 19\nvalue = [19, 0]"] ;
323 -> 325 ;
326 [label="X[5] <= 63.023\ngini = 0.494\nsamples = 9\nvalue = [5, 4]"] ;
182 -> 326 ;
327 [label="gini = 0.0\nsamples = 4\nvalue = [0, 4]"] ;
326 -> 327 ;
328 [label="gini = 0.0\nsamples = 5\nvalue = [5, 0]"] ;
326 -> 328 ;
}
